{
  "weights": [
    [
      -0.03781186507290681,
      -0.00881000482168286,
      -0.20225243627037032,
      0.00021706481659354988,
      0.10542374553041696
    ],
    [
      0.038535658790423186,
      -0.027348874432911886,
      0.17314341167043762,
      -0.10389481102864859,
      0.042946378908348806
    ],
    [
      -0.14273688854371896,
      0.07330730505946274,
      0.04878386763057348,
      -0.013493328255123577,
      0.0582384418774612
    ],
    [
      -0.21313099863912255,
      -0.04115743833613713,
      -0.14497282476928877,
      0.0621763197455917,
      0.05724647791747361
    ],
    [
      -0.10820244864557323,
      -0.13223639811079066,
      0.07931232546305246,
      0.16409434044431329,
      0.0435473865408281
    ],
    [
      0.0028318729511480696,
      -0.11146390195923549,
      0.05101219806383005,
      0.1589130306717487,
      0.11553407573076975
    ],
    [
      0.026019138333655274,
      -0.002774357014350554,
      0.017517676732281773,
      0.0699336320266372,
      -0.03674386860820655
    ],
    [
      -0.23612334991209324,
      -0.07116174784306478,
      -0.03985409981145137,
      -0.13325487775589945,
      -0.2362146572920224
    ],
    [
      -0.05901543817364217,
      0.018674700320714433,
      0.024061606194263827,
      0.0863861197417735,
      -0.16814263887185366
    ],
    [
      -0.10606372377375405,
      -0.013894770504362303,
      -0.14548799364452594,
      0.13107225219708674,
      0.020330710043305934
    ],
    [
      -0.20343831423227424,
      0.06877723135887374,
      0.030311932855556032,
      0.16545901954088924,
      0.13163980148069515
    ],
    [
      -0.014293989623106212,
      0.007315838519321046,
      0.2025082745290951,
      0.19794405351047267,
      0.03605788496142808
    ],
    [
      -0.09862580865391597,
      -0.038356056988579065,
      0.05854940577295475,
      0.10572060639492303,
      -0.06768733002921745
    ],
    [
      -0.06144239468427307,
      -0.10484236901053229,
      0.2818419269555572,
      0.14312207133056387,
      0.0035327024992258585
    ],
    [
      -0.12265434187315075,
      -0.08816736620759258,
      0.042859251361798655,
      -0.07842360295711534,
      0.03205019197155636
    ],
    [
      -0.03927309157387597,
      -0.25455050329636986,
      -0.08160881069083731,
      0.09929355048289276,
      0.14221102115619402
    ],
    [
      0.0939238743286026,
      0.020076534534819356,
      -0.006218119942380886,
      0.09526246848159936,
      0.10616313551271717
    ],
    [
      0.12642496585177027,
      -0.026920261754718393,
      -0.06897061160615345,
      0.007812702617661375,
      0.20058581427309854
    ],
    [
      0.01333096560748149,
      0.04870578411838852,
      0.03875351654559224,
      0.07750291810248805,
      -0.12996878448027882
    ],
    [
      0.055117593517844087,
      0.003216048525025456,
      0.024241749926861154,
      0.051817587724429216,
      -0.0034085383296170568
    ],
    [
      -0.014876857344151707,
      -0.02774364295181276,
      0.2799715000506088,
      0.08218581711679437,
      0.1601487048246458
    ],
    [
      -0.061021599565396906,
      -0.09760398041428454,
      0.19026505033331859,
      0.1163304802284972,
      -0.15512730748443973
    ],
    [
      -0.022934556265353696,
      -0.05795338516088377,
      0.09955988881728253,
      0.13372371416313827,
      -0.12690468084970524
    ],
    [
      -0.038346277205956035,
      -0.06122563228462809,
      -0.15611207239855268,
      -0.1507042820362835,
      0.28256453660191894
    ],
    [
      -0.02486998204317257,
      -0.03187172380438499,
      0.0284513420317397,
      0.04262282499267995,
      -0.12148844203412643
    ],
    [
      -0.03015034108037487,
      0.17283442599560653,
      -0.05861591452552672,
      -0.08627696003388395,
      0.021074909979772453
    ],
    [
      0.04489622532462981,
      0.011909663794147117,
      -0.04964646856076995,
      0.019341631633392625,
      0.11730572836229712
    ],
    [
      -0.08278167359639838,
      -0.025176075570944274,
      -0.05663111109746682,
      0.048921894332684755,
      0.007214290912054607
    ],
    [
      -0.02233087009255801,
      0.1457050321571507,
      -0.06347884910262229,
      0.11168986496703988,
      0.11338454964068961
    ],
    [
      -0.0070472478200538265,
      0.07504283050445616,
      0.08431461153072815,
      -0.08800468986689067,
      -0.06563736556952741
    ],
    [
      0.027842001657173578,
      -0.06736247245206615,
      -0.03375623589879284,
      -0.057567183650683876,
      -0.19716334558055026
    ],
    [
      0.017290787017200656,
      -0.03199713466009532,
      -0.12353572938137886,
      0.02595624257368342,
      0.16349831469533563
    ],
    [
      -0.0732134139363904,
      -0.19908700002201693,
      0.03703830204014875,
      0.08872936827092671,
      0.19718619201568352
    ],
    [
      0.08040033788862891,
      -0.16864154530805472,
      0.02246264162299019,
      -0.20168881849435272,
      -0.15193599409367292
    ],
    [
      -0.05168642924961909,
      -0.04122236030376689,
      -0.02065585486260459,
      -0.06610071355101838,
      0.07707913419257553
    ],
    [
      0.055994562242248636,
      -0.014373842767973795,
      -0.04531284846767505,
      -0.16907991268435896,
      -0.05322391456719369
    ],
    [
      0.05291191876576721,
      -0.0771763594493779,
      -0.058957450116426134,
      0.05126005182169009,
      -0.09927080439937135
    ],
    [
      -0.0030685843155919107,
      0.08371415342754449,
      0.10821760176224449,
      0.14344973236936612,
      -0.057148882083908836
    ],
    [
      0.08658687263618828,
      -0.08942645525351806,
      0.1722770673964933,
      0.06210238797909312,
      -0.04987601502778594
    ],
    [
      -0.10100492566211762,
      -0.02411110703186361,
      0.13126332245944697,
      0.08573534116782519,
      0.0035152081396870602
    ],
    [
      0.08680606799851712,
      0.11207109922686491,
      0.015868529689186676,
      0.020293636413893045,
      -0.174178805794242
    ],
    [
      -0.07817861868747036,
      -0.04067334751261497,
      -0.05857539053359977,
      0.1361858817926024,
      -0.04288558121628445
    ],
    [
      0.1265666668457352,
      0.10967357309458652,
      0.09820364937348634,
      -0.08857340728589622,
      -0.03438810953483018
    ],
    [
      -0.26807974734545253,
      0.056693054458158414,
      -0.003059241587637957,
      0.14963265272972837,
      0.06506803303799032
    ],
    [
      0.12518062735642466,
      0.18986539918108813,
      -0.19145826621531578,
      0.05953476550895084,
      0.011428998395757882
    ],
    [
      -0.12131265188816955,
      0.06199472166258022,
      0.05026478192899016,
      -0.06135833597616976,
      0.021619304035463843
    ],
    [
      0.2460368665227264,
      -0.20438711734777237,
      -0.06068046333378445,
      0.14331704315111982,
      -0.07075297234781905
    ],
    [
      -0.04558141141117578,
      -0.0637048586698731,
      -0.0240075324081322,
      0.022248641625289608,
      -0.01051180677533657
    ],
    [
      0.031274556846208716,
      -0.26678875019832404,
      0.08534704076544966,
      0.12707433987919858,
      0.09259810473168667
    ],
    [
      -0.043404296963061875,
      0.20513246551817008,
      0.09327773393484298,
      -0.07985008908726782,
      0.19909106443754632
    ],
    [
      0.01824726876642189,
      -0.28685898379903313,
      0.011378298648348469,
      -0.028415481299488295,
      -0.1057112743090951
    ],
    [
      -0.011261292743985064,
      -0.06095857515036756,
      -0.11476909676989654,
      0.029743771715901816,
      0.009058620585094743
    ],
    [
      0.02244959996426523,
      -0.30830953962125945,
      0.1560132044051589,
      -0.014452262443026902,
      0.025266186501267284
    ],
    [
      -0.1176632114644223,
      -0.03728306216048378,
      -0.053320541004861846,
      0.0032717773474284346,
      0.20927190125888398
    ]
  ],
  "bias": [
    -5.8432658755238e-05,
    4.6888330607042775e-05,
    5.809665588675168e-05,
    1.9337123654748924e-05,
    -6.58894513933054e-05
  ],
  "scaler_mean": [
    0.3488607406616211,
    0.34719714522361755,
    0.34579363465309143,
    0.3472238779067993,
    0.3489830791950226,
    0.3508104979991913,
    0.5247223973274231,
    0.4659563899040222,
    0.4334200918674469,
    0.29106903076171875,
    0.2907162010669708,
    0.289849191904068,
    0.2904239296913147,
    0.29077014327049255,
    0.04780839756131172,
    0.3534076511859894,
    0.35437023639678955,
    0.36217060685157776,
    0.7879934906959534,
    0.7876808643341064,
    0.7831211090087891,
    0.7851428985595703,
    0.7859187722206116,
    0.4616333246231079,
    0.9998586773872375,
    0.9996318817138672,
    0.9997849464416504,
    0.0,
    0.0,
    0.0,
    0.0,
    0.0,
    0.2499363124370575,
    -0.09651350975036621,
    -0.10659155994653702,
    -0.11282867193222046,
    0.20954099297523499,
    0.12917618453502655,
    0.21544118225574493,
    0.13212478160858154,
    0.2174212783575058,
    0.13310185074806213,
    0.21356134116649628,
    0.13033555448055267,
    0.2058800458908081,
    0.13025178015232086,
    0.05217999964952469,
    0.05494566634297371,
    0.05721968412399292,
    0.12521234154701233,
    0.06109960004687309,
    0.12588626146316528,
    0.06240034103393555,
    0.12371128797531128
  ],
  "scaler_std": [
    0.17711368203163147,
    0.17577329277992249,
    0.17632955312728882,
    0.17605753242969513,
    0.17748597264289856,
    0.21114316582679749,
    0.2640639543533325,
    0.2979862689971924,
    0.31622183322906494,
    0.1301898956298828,
    0.13008563220500946,
    0.13007408380508423,
    0.13027232885360718,
    0.129999577999115,
    0.0052946023643016815,
    0.19092023372650146,
    0.19071480631828308,
    0.19483442604541779,
    0.2696352005004883,
    0.26992905139923096,
    0.27157068252563477,
    0.27267342805862427,
    0.2709255814552307,
    0.21338999271392822,
    0.001943733193911612,
    0.002837901469320059,
    0.002338593592867255,
    9.99999993922529e-09,
    9.99999993922529e-09,
    9.99999993922529e-09,
    9.99999993922529e-09,
    9.99999993922529e-09,
    0.1962999552488327,
    0.5498803853988647,
    0.5540872812271118,
    0.5527606010437012,
    0.08155851811170578,
    0.031599536538124084,
    0.08301321417093277,
    0.03381089121103287,
    0.08761828392744064,
    0.035142458975315094,
    0.08011534065008163,
    0.03332999721169472,
    0.08635630458593369,
    0.03244337439537048,
    0.11006561666727066,
    0.00749093946069479,
    0.04974989593029022,
    0.039709821343421936,
    0.05283171311020851,
    0.040003031492233276,
    0.05777765065431595,
    0.036365024745464325
  ],
  "metadata": {
    "model_type": "simple_linear_classifier",
    "input_shape": [
      50,
      9
    ],
    "output_classes": 5,
    "created_at": "2025-08-02T22:51:16.411430"
  }
}